svm_type c_svc
kernel_type rbf
gamma 0.1111111111111111
nr_class 2
total_sv 495
rho 0.045082239219975562
label 1 -1
nr_sv 248 247
SV
1 1:29.328 2:29.328 3:29.328 4:68.8901 5:68.8901 6:68.8901 7:92.6344 8:92.6344 9:92.6344 
1 1:29.5152 2:29.3904 3:29.435 4:68.9283 5:68.6994 6:68.8222 7:92.9521 8:92.6344 9:92.7917 
1 1:29.5776 2:29.4528 3:29.5128 4:68.6231 5:68.3103 6:68.5233 7:92.9521 8:92.5709 9:92.7884 
1 1:27.7056 2:27.5808 3:27.6382 4:74.2383 5:73.9561 6:74.0912 7:93.2063 8:92.9521 9:93.0893 
1 1:27.8304 2:27.7056 3:27.778 4:73.7424 5:73.6051 6:73.6777 7:93.2698 8:92.9521 9:93.1173 
1 1:27.8928 2:27.768 3:27.8184 4:73.5517 5:73.4067 6:73.4742 7:93.2698 8:93.0156 9:93.1305 
1 1:27.9552 2:27.8928 3:27.9028 4:73.3228 5:73.1855 6:73.277 7:93.1427 8:93.0792 9:93.13 
1 1:28.0176 2:27.8928 3:27.9528 4:73.0253 5:72.9185 6:72.968 7:93.2698 8:93.0156 9:93.1354 
1 1:28.0176 2:27.9552 3:27.9602 4:73.0863 5:72.949 6:73.0408 7:93.1427 8:93.0156 9:93.1224 
1 1:27.9552 2:27.9552 3:27.9552 4:73.0863 5:72.8879 6:72.9724 7:93.1427 8:92.8886 9:93.1085 
1 1:28.0176 2:27.9552 3:27.9677 4:72.949 5:72.8879 6:72.9233 7:93.2698 8:93.0792 9:93.1427 
1 1:28.0176 2:27.9552 3:27.9624 4:72.9185 5:72.8345 6:72.8618 7:93.2698 8:92.9521 9:93.1232 
1 1:28.0176 2:27.9552 3:27.9677 4:72.949 5:72.8879 6:72.9331 7:93.1427 8:92.9521 9:93.0868 
1 1:28.0176 2:27.9552 3:27.9672 4:73.0253 5:72.8879 6:72.9763 7:93.1427 8:92.9521 9:93.0865 
1 1:28.0176 2:27.9552 3:27.9652 4:73.0253 5:72.949 6:72.9798 7:93.1427 8:92.9521 9:93.1046 
1 1:28.0176 2:27.9552 3:27.96 4:73.0558 5:72.9185 6:72.9739 7:93.1427 8:93.0156 9:93.1012 
1 1:27.9552 2:27.8928 3:27.9528 4:72.949 5:72.9185 6:72.9431 7:93.1427 8:93.0156 9:93.0987 
1 1:28.0176 2:27.9552 3:27.9576 4:72.8879 5:72.8345 6:72.8536 7:93.2698 8:92.9521 9:93.1207 
1 1:27.9552 2:27.8928 3:27.9456 4:72.8879 5:72.8345 6:72.8518 7:93.2698 8:92.9521 9:93.0914 
1 1:27.9552 2:27.8928 3:27.9456 4:72.949 5:72.8345 6:72.8944 7:93.1427 8:92.9521 9:93.1109 
1 1:27.9552 2:27.8928 3:27.9096 4:72.9871 5:72.9108 6:72.9226 7:93.1427 8:93.0156 9:93.1134 
1 1:27.9552 2:27.8928 3:27.9153 4:72.9108 5:72.8498 6:72.8705 7:93.1427 8:92.825 9:93.097 
1 1:27.9552 2:27.8928 3:27.9113 4:72.9871 5:72.8498 6:72.9035 7:93.1427 8:93.0156 9:93.1215 
1 1:27.8928 2:27.8304 3:27.888 4:73.0482 5:73.0482 6:73.0482 7:93.1427 8:92.8886 9:93.0865 
1 1:27.8928 2:27.8304 3:27.8653 4:73.0482 5:73.0176 6:73.0408 7:93.1427 8:92.9521 9:93.097 
1 1:27.8928 2:27.8304 3:27.864 4:73.071 5:73.0482 6:73.0499 7:93.2698 8:92.9521 9:93.1158 
1 1:27.8928 2:27.8304 3:27.8616 4:73.1016 5:73.0482 6:73.0749 7:93.1427 8:92.9521 9:93.1061 
1 1:27.8928 2:27.8304 3:27.8496 4:72.9108 5:72.9108 6:72.9108 7:93.2063 8:92.9521 9:93.1061 
1 1:27.8928 2:27.8304 3:27.8496 4:73.071 5:73.0482 6:73.0552 7:93.2063 8:92.9521 9:93.0987 
0.66482650840802715 1:27.8304 2:27.768 3:27.8254 4:73.1016 5:73.071 6:73.0747 7:93.2698 8:92.9521 9:93.0995 
1 1:27.8304 2:27.768 3:27.78 4:73.1855 5:73.155 6:73.1843 7:93.2063 8:92.9521 9:93.1109 
1 1:27.8304 2:27.768 3:27.778 4:73.2999 5:73.155 6:73.2023 7:93.2063 8:92.9521 9:93.069 
1 1:27.8304 2:27.768 3:27.7704 4:73.3228 5:73.2389 6:73.3029 7:93.1427 8:93.0792 9:93.1036 
1 1:27.8304 2:27.7056 3:27.768 4:73.2999 5:73.2389 6:73.2657 7:93.1427 8:93.0156 9:93.0944 
1 1:27.768 2:27.7056 3:27.7536 4:73.3228 5:73.2618 6:73.3081 7:93.1427 8:92.9521 9:93.0938 
1 1:27.768 2:27.7056 3:27.7356 4:73.3839 5:73.2847 6:73.3225 7:93.2063 8:93.0792 9:93.1051 
1 1:27.768 2:27.7056 3:27.7296 4:73.3686 5:73.3152 6:73.3357 7:93.2698 8:92.9521 9:93.0963 
1 1:27.768 2:27.7056 3:27.7156 4:73.3686 5:73.3457 6:73.3613 7:93.2063 8:92.9521 9:93.0766 
1 1:27.768 2:27.7056 3:27.7206 4:73.3152 5:73.2847 6:73.3066 7:93.1427 8:92.8886 9:93.0766 
1 1:27.768 2:27.7056 3:27.7248 4:73.3457 5:73.2847 6:73.3128 7:93.1427 8:92.825 9:93.0694 
0.18436529676583366 1:27.768 2:27.7056 3:27.7206 4:73.2847 5:73.2618 6:73.2627 7:93.1427 8:92.9521 9:93.0665 
1 1:27.768 2:27.7056 3:27.7224 4:73.2847 5:73.2847 6:73.2847 7:93.1427 8:92.9521 9:93.0792 
1 1:27.7056 2:27.6432 3:27.7032 4:73.3686 5:73.2847 6:73.3067 7:93.1427 8:92.9521 9:93.067 
1 1:27.7056 2:27.6432 3:27.6768 4:73.5135 5:73.483 6:73.5065 7:93.1427 8:92.9521 9:93.067 
1 1:27.7056 2:27.6432 3:27.6781 4:73.483 5:73.4525 6:73.4806 7:93.1427 8:92.9521 9:93.0716 
1 1:27.7056 2:27.6432 3:27.6696 4:73.4525 5:73.3991 6:73.4308 7:93.1427 8:92.9521 9:93.0645 
1 1:27.7056 2:27.6432 3:27.6756 4:73.4296 5:73.3991 6:73.4272 7:93.1427 8:92.9521 9:93.0741 
1 1:27.7056 2:27.6432 3:27.6781 4:73.483 5:73.4296 6:73.4662 7:93.2698 8:92.9521 9:93.0843 
1 1:27.7056 2:27.6432 3:27.6816 4:73.4525 5:73.3686 6:73.3976 7:93.0792 8:92.9521 9:93.0694 
1 1:27.7056 2:27.6432 3:27.6781 4:73.4296 5:73.3686 6:73.4077 7:93.2063 8:92.9521 9:93.0716 
1 1:27.7056 2:27.6432 3:27.6709 4:73.3991 5:73.3991 6:73.3991 7:93.2063 8:92.9521 9:93.0768 
1 1:27.7056 2:27.6432 3:27.6781 4:73.3686 5:73.3686 6:73.3686 7:93.2063 8:92.825 9:93.0716 
1 1:27.7056 2:27.6432 3:27.6576 4:73.5975 5:73.3686 6:73.5291 7:93.1427 8:92.9521 9:93.067 
1 1:27.7056 2:27.5808 3:27.6507 4:73.567 5:73.4296 6:73.4952 7:93.2063 8:92.9521 9:93.0614 
1 1:27.7056 2:27.6432 3:27.6482 4:73.4296 5:73.3686 6:73.3991 7:93.1427 8:92.9521 9:93.069 
1 1:27.7056 2:27.6432 3:27.648 4:73.4296 5:73.4296 6:73.4296 7:93.2063 8:92.9521 9:93.0645 
1 1:27.6432 2:27.6432 3:27.6432 4:73.5135 5:73.4525 6:73.4733 7:93.1427 8:92.9521 9:93.0665 
1 1:27.6432 2:27.5808 3:27.5933 4:73.6204 5:73.5135 6:73.5734 7:93.2063 8:92.9521 9:93.0741 
1 1:27.6432 2:27.5808 3:27.612 4:73.5135 5:73.4296 6:73.4763 7:93.1427 8:92.8886 9:93.0572 
1 1:27.7056 2:27.5808 3:27.6307 4:73.4296 5:73.3152 6:73.3561 7:93.2063 8:92.9521 9:93.0766 
1 1:27.6432 2:27.5808 3:27.5908 4:73.6204 5:73.5135 6:73.5804 7:93.0792 8:92.825 9:93.0487 
1 1:27.6432 2:27.5808 3:27.5928 4:73.483 5:73.3991 6:73.4314 7:93.0792 8:92.9521 9:93.0596 
1 1:27.6432 2:27.5808 3:27.5858 4:73.4296 5:73.3991 6:73.4077 7:93.2063 8:92.9521 9:93.0639 
1 1:27.6432 2:27.5184 3:27.5808 4:73.3457 5:73.3457 6:73.3457 7:93.1427 8:92.825 9:93.0411 
0.96567783760118941 1:27.6432 2:27.5808 3:27.5856 4:73.3991 5:73.3152 6:73.3583 7:93.0792 8:92.8886 9:93.0523 
1 1:27.5808 2:27.5184 3:27.552 4:73.6432 5:73.483 6:73.5655 7:93.1427 8:92.8886 9:93.0425 
1 1:27.5808 2:27.456 3:27.5234 4:73.6661 5:73.5822 6:73.6436 7:93.0792 8:92.8886 9:93.0233 
1 1:27.5184 2:27.456 3:27.5088 4:73.6661 5:73.5822 6:73.6318 7:93.2063 8:92.8886 9:93.0376 
1 1:27.5184 2:27.456 3:27.4685 4:74.0018 5:73.6127 6:73.8718 7:93.0792 8:92.8886 9:93.0309 
1 1:27.5184 2:27.456 3:27.4704 4:74.0018 5:73.7501 6:73.9493 7:93.0792 8:92.8886 9:93.0327 
1 1:27.5184 2:27.456 3:27.4785 4:73.7501 5:73.6661 6:73.6951 7:93.2063 8:92.8886 9:93.0334 
1 1:27.5184 2:27.456 3:27.468 4:73.7806 5:73.6967 6:73.7354 7:93.2063 8:92.8886 9:93.0523 
1 1:27.5184 2:27.456 3:27.471 4:73.7806 5:73.7272 6:73.7479 7:93.0792 8:92.8886 9:93.0258 
1 1:27.456 2:27.3936 3:27.432 4:73.9484 5:73.6661 6:73.8718 7:93.0792 8:92.8886 9:93.0059 
1 1:27.456 2:27.3936 3:27.396 4:73.895 5:73.834 6:73.8645 7:93.0792 8:92.9521 9:93.0279 
1 1:27.456 2:27.3936 3:27.3986 4:73.834 5:73.7501 6:73.7702 7:93.0792 8:92.8886 9:93.0156 
1 1:27.456 2:27.3312 3:27.396 4:73.7806 5:73.7272 6:73.7371 7:93.2063 8:92.8886 9:93.0132 
1 1:27.3936 2:27.3312 3:27.3711 4:73.834 5:73.7119 6:73.7559 7:93.0792 8:93.0156 9:93.0233 
1 1:27.3936 2:27.3312 3:27.3552 4:73.9637 5:73.7958 6:73.878 7:93.0792 8:93.0156 9:93.0279 
1 1:27.3936 2:27.3312 3:27.3336 4:74.0171 5:73.9942 6:74.0109 7:93.1427 8:92.8886 9:93.0327 
1 1:27.3312 2:27.2688 3:27.3237 4:74.0476 5:73.9637 6:74.0351 7:93.0792 8:92.8886 9:93.008 
1 1:27.3312 2:27.2688 3:27.3127 4:74.0171 5:73.9637 6:74.0004 7:93.2063 8:92.8886 9:93.0227 
1 1:27.3312 2:27.2688 3:27.2988 4:73.9637 5:73.9637 6:73.9637 7:93.0792 8:92.8886 9:93.0106 
1 1:27.3312 2:27.2688 3:27.2904 4:74.0171 5:73.9332 6:73.9819 7:93.0156 8:92.8886 9:93.001 
1 1:27.3312 2:27.2688 3:27.3012 4:73.9103 5:73.8264 6:73.8456 7:93.0792 8:92.8886 9:93.0156 
1 1:27.3312 2:27.2688 3:27.2988 4:73.7424 5:73.689 6:73.7244 7:93.0792 8:93.0156 9:93.0207 
1 1:27.3312 2:27.2064 3:27.2712 4:73.8492 5:73.8264 6:73.8272 7:93.0792 8:92.8886 9:93.0132 
1 1:27.3312 2:27.2064 3:27.2736 4:73.8492 5:73.8264 6:73.8369 7:93.0792 8:92.8886 9:93.0108 
1 1:26.9568 2:26.8944 3:26.9208 4:74.1086 5:73.8264 6:73.9563 7:93.0792 8:92.8886 9:92.9741 
1 1:27.0192 2:26.9568 3:26.9618 4:73.8264 5:73.7729 6:73.8044 7:93.0792 8:92.8886 9:92.9597 
1 1:27.0192 2:26.9568 3:27.0024 4:73.7424 5:73.5898 6:73.6485 7:93.0792 8:92.8886 9:92.9717 
1 1:27.0816 2:26.9568 3:27.0167 4:73.5898 5:73.4754 6:73.5239 7:93.0156 8:92.8886 9:92.9699 
1 1:27.0816 2:27.0192 3:27.0624 4:73.2236 5:73.0024 6:73.069 7:93.0792 8:92.8886 9:92.9814 
0.18886513125644566 1:27.0816 2:27.0192 3:27.0766 4:73.0558 5:73.0024 6:73.0356 7:93.0792 8:92.8886 9:92.9699 
1 1:27.144 2:27.0192 3:27.06 4:73.1397 5:73.0558 6:73.0878 7:93.0156 8:92.825 9:92.9741 
0.34711225345409802 1:27.3936 2:27.2688 3:27.3612 4:72.0411 5:71.7359 6:71.9007 7:93.0156 8:92.7615 9:92.914 
1 1:27.5184 2:27.3936 3:27.4608 4:71.7435 5:71.1027 6:71.3415 7:93.0792 8:92.7615 9:92.9399 
1 1:27.6432 2:27.5184 3:27.5568 4:71.2781 5:71.1255 6:71.2162 7:93.0156 8:92.7615 9:92.9252 
1 1:27.7056 2:27.5808 3:27.6432 4:71.2171 5:70.828 6:71.0537 7:92.9521 8:92.825 9:92.9277 
1 1:28.1424 2:28.0176 3:28.0488 4:69.5615 5:69.2029 6:69.2942 7:93.0792 8:92.825 9:92.979 
1 1:28.1424 2:28.0176 3:28.0825 4:69.4471 5:69.3403 6:69.4132 7:93.0792 8:92.8886 9:92.9724 
1 1:28.2048 2:28.1424 3:28.1873 4:69.0656 5:68.8978 6:68.9765 7:93.0792 8:92.8886 9:92.9801 
1 1:28.2672 2:28.1424 3:28.2048 4:69.0961 5:69.0122 6:69.0709 7:93.0792 8:92.8886 9:92.9741 
1 1:28.2672 2:28.2048 3:28.2168 4:68.8444 5:68.7604 6:68.8191 7:93.0792 8:92.8886 9:92.9814 
1 1:28.2672 2:28.2048 3:28.2348 4:68.8978 5:68.5621 6:68.7223 7:93.0792 8:92.825 9:92.9572 
1 1:28.2672 2:28.2048 3:28.2552 4:68.8444 5:68.6765 6:68.7725 7:93.0792 8:92.8886 9:92.9814 
1 1:28.2672 2:28.2048 3:28.2622 4:68.8444 5:68.5621 6:68.7394 7:93.0792 8:92.8886 9:92.9826 
1 1:28.3296 2:28.2672 3:28.2696 4:68.5392 5:68.4553 6:68.4943 7:93.0792 8:92.825 9:92.9668 
1 1:28.3296 2:28.2048 3:28.2672 4:68.5621 5:68.2035 6:68.3701 7:93.0792 8:92.825 9:92.975 
1 1:28.3296 2:28.2672 3:28.2744 4:68.3713 5:68.173 6:68.2493 7:93.0792 8:92.9521 9:92.9717 
1 1:28.3296 2:28.2672 3:28.2872 4:68.5163 5:68.3713 6:68.4623 7:93.0792 8:92.825 9:92.9674 
1 1:28.3296 2:28.2672 3:28.308 4:68.5163 5:68.4781 6:68.5016 7:93.0792 8:92.9521 9:92.9765 
1 1:28.3296 2:28.2672 3:28.3046 4:68.5163 5:68.3256 6:68.4223 7:93.0792 8:92.825 9:92.9724 
1 1:28.3296 2:28.2672 3:28.3171 4:68.2111 5:68.0585 6:68.1745 7:93.0792 8:92.825 9:92.9775 
1 1:28.3296 2:28.2672 3:28.3128 4:68.234 5:68.1501 6:68.1888 7:93.0792 8:92.825 9:92.9594 
1 1:28.3296 2:28.2672 3:28.3246 4:68.234 5:68.0356 6:68.1531 7:93.1427 8:92.825 9:92.9623 
1 1:28.392 2:28.2672 3:28.3224 4:68.3256 5:68.234 6:68.2857 7:93.1427 8:92.825 9:92.9839 
1 1:28.3296 2:28.3296 3:28.3296 4:68.295 5:68.1501 6:68.2026 7:93.0792 8:92.825 9:92.9445 
1 1:28.392 2:28.3296 3:28.332 4:68.1501 5:68.0128 6:68.0981 7:93.1427 8:92.825 9:92.979 
1 1:28.392 2:28.2672 3:28.3296 4:68.0128 5:67.9288 6:67.9655 7:93.0792 8:92.825 9:92.9717 
1 1:28.392 2:28.3296 3:28.3396 4:68.0662 5:67.8983 6:67.999 7:93.0792 8:92.825 9:92.9623 
1 1:28.392 2:28.3296 3:28.3512 4:68.0967 5:67.9822 6:68.0219 7:93.0792 8:92.825 9:92.9643 
1 1:28.392 2:28.3296 3:28.3496 4:68.1501 5:68.0967 6:68.1409 7:93.0792 8:92.6979 9:92.947 
1 1:28.392 2:28.3296 3:28.3392 4:68.1501 5:68.0128 6:68.0609 7:93.0792 8:92.825 9:92.957 
1 1:28.3296 2:28.2672 3:28.3171 4:68.0967 5:67.761 6:67.9041 7:93.1427 8:92.825 9:92.975 
1 1:28.3296 2:28.2672 3:28.3104 4:67.9288 5:67.761 6:67.8505 7:93.0792 8:92.825 9:92.957 
1 1:28.3296 2:28.2672 3:28.3176 4:68.1501 5:67.9288 6:68.0107 7:93.0792 8:92.825 9:92.9619 
1 1:28.392 2:28.2672 3:28.3271 4:67.9822 5:67.8983 6:67.9444 7:93.0792 8:92.8886 9:92.9724 
1 1:28.3296 2:28.2672 3:28.3271 4:68.1272 5:68.0662 6:68.1125 7:93.0792 8:92.9521 9:92.9801 
1 1:28.3296 2:28.2672 3:28.3271 4:68.0967 5:68.0128 6:68.0509 7:93.0792 8:92.825 9:92.9648 
1 1:28.3296 2:28.2672 3:28.3272 4:68.0128 5:67.8983 6:67.9582 7:93.0792 8:92.9521 9:92.9839 
1 1:28.3296 2:28.2672 3:28.3246 4:67.9594 5:67.8754 6:67.9328 7:93.0792 8:92.825 9:92.975 
1 1:28.392 2:28.2672 3:28.3248 4:67.9822 5:67.9288 6:67.9394 7:93.1427 8:92.825 9:92.9765 
1 1:28.392 2:28.2672 3:28.3296 4:68.0128 5:67.8449 6:67.9497 7:93.1427 8:92.9521 9:93.0059 
1 1:28.3296 2:28.2672 3:28.3272 4:68.0128 5:67.8144 6:67.9558 7:93.1427 8:92.825 9:93.0059 
1 1:28.3296 2:28.2672 3:28.308 4:67.761 5:67.616 6:67.6929 7:93.0792 8:92.825 9:92.9497 
1 1:28.3296 2:28.2672 3:28.2872 4:67.8449 5:67.616 6:67.7097 7:93.0792 8:92.8886 9:92.9648 
1 1:28.3296 2:28.2672 3:28.2936 4:67.8983 5:67.6694 6:67.8446 7:93.0792 8:92.8886 9:92.9717 
1 1:28.3296 2:28.2672 3:28.2972 4:67.761 5:67.555 6:67.6221 7:93.0792 8:92.7615 9:92.9648 
1 1:28.3296 2:28.2672 3:28.3157 4:67.8449 5:67.7076 6:67.7565 7:93.0792 8:92.825 9:92.9756 
1 1:28.3296 2:28.2672 3:28.2912 4:67.6237 5:67.3337 6:67.4491 7:93.0792 8:92.9521 9:92.9936 
1 1:28.3296 2:28.2672 3:28.284 4:67.555 5:67.4482 6:67.4893 7:93.0792 8:92.9521 9:92.9888 
1 1:28.3296 2:28.2048 3:28.26 4:67.5016 5:67.3337 6:67.4097 7:93.0792 8:92.8886 9:92.9594 
1 1:28.2672 2:28.2672 3:28.2672 4:67.6694 5:67.5321 6:67.6313 7:93.0792 8:92.8886 9:92.9741 
1 1:28.2672 2:28.2048 3:28.2648 4:67.5321 5:67.4177 6:67.4875 7:93.1427 8:92.9521 9:93.0059 
1 1:28.2672 2:28.2048 3:28.2622 4:67.5855 5:67.4711 6:67.5367 7:93.0792 8:92.9521 9:92.9877 
1 1:28.2672 2:28.2048 3:28.2624 4:67.5855 5:67.5016 6:67.5456 7:93.0792 8:92.8886 9:92.9839 
1 1:28.3296 2:28.2672 3:28.2847 4:67.8373 5:67.5855 6:67.7134 7:93.1427 8:92.825 9:92.9623 
1 1:28.3296 2:28.2672 3:28.2747 4:67.7534 5:67.6694 6:67.7244 7:93.0792 8:92.825 9:92.9724 
1 1:28.3296 2:28.2672 3:28.284 4:67.761 5:67.555 6:67.6545 7:93.0792 8:92.9521 9:92.9863 
1 1:28.3296 2:28.2672 3:28.2747 4:67.616 5:67.5321 6:67.5532 7:93.1427 8:92.9521 9:93.0029 
1 1:28.3296 2:28.2048 3:28.272 4:67.6694 5:67.616 6:67.646 7:93.0792 8:92.825 9:92.9814 
1 1:28.3296 2:28.2672 3:28.2747 4:67.7534 5:67.6694 6:67.7146 7:93.0792 8:92.8886 9:92.9572 
1 1:28.3296 2:28.2048 3:28.272 4:67.6389 5:67.3337 6:67.4863 7:93.0792 8:92.9521 9:93.0132 
1 1:28.3296 2:28.2048 3:28.2697 4:67.616 5:67.4711 6:67.5199 7:93.1427 8:92.9521 9:93.0004 
1 1:28.2672 2:28.2672 3:28.2672 4:67.6694 5:67.616 6:67.6369 7:93.0792 8:92.9521 9:92.9936 
1 1:28.3296 2:28.2672 3:28.2697 4:67.6694 5:67.5321 6:67.5858 7:93.1427 8:92.825 9:92.9978 
1 1:28.3296 2:28.2048 3:28.272 4:67.5855 5:67.4177 6:67.533 7:93.0792 8:92.9521 9:92.979 
1 1:28.3296 2:28.2672 3:28.2864 4:67.555 5:67.5016 6:67.5221 7:93.0792 8:92.825 9:92.9545 
1 1:28.3296 2:28.2672 3:28.284 4:67.616 5:67.555 6:67.5996 7:93.1427 8:92.8886 9:92.9888 
1 1:28.3296 2:28.2672 3:28.2857 4:67.616 5:67.4711 6:67.5592 7:93.0792 8:92.9521 9:93.0039 
1 1:28.2672 2:28.2672 3:28.2672 4:67.6465 5:67.4177 6:67.5441 7:93.0792 8:92.825 9:92.9765 
1 1:28.3296 2:28.2672 3:28.2792 4:67.555 5:67.5016 6:67.5342 7:93.1427 8:92.8886 9:92.9936 
1 1:28.3296 2:28.2672 3:28.2797 4:67.555 5:67.5016 6:67.5269 7:93.0792 8:92.9521 9:92.9724 
1 1:28.2672 2:28.2672 3:28.2672 4:67.5321 5:67.4711 6:67.5133 7:93.0792 8:92.8886 9:92.9741 
1 1:28.2672 2:28.2048 3:28.2572 4:67.4711 5:67.3337 6:67.3603 7:93.0792 8:92.8886 9:92.9699 
1 1:28.2672 2:28.2048 3:28.2647 4:67.6389 5:67.616 6:67.6243 7:93.0792 8:92.9521 9:93.0004 
1 1:28.3296 2:28.2048 3:28.2672 4:67.616 5:67.5855 6:67.5879 7:93.0792 8:92.8886 9:92.9888 
1 1:28.2672 2:28.2048 3:28.2647 4:67.616 5:67.5016 6:67.5715 7:93.0792 8:92.8886 9:92.9978 
1 1:28.2672 2:28.2048 3:28.26 4:67.5321 5:67.2803 6:67.4141 7:93.0792 8:92.8886 9:92.9692 
1 1:28.3296 2:28.2048 3:28.2624 4:67.4177 5:67.3337 6:67.364 7:93.1427 8:92.8886 9:92.9863 
1 1:28.3296 2:28.2048 3:28.26 4:67.4482 5:67.3337 6:67.3836 7:93.0792 8:92.8886 9:92.9936 
1 1:28.2672 2:28.2048 3:28.26 4:67.5855 5:67.5321 6:67.5565 7:93.0792 8:92.8886 9:92.9814 
1 1:28.392 2:28.3296 3:28.3464 4:68.0967 5:67.9288 6:68.0224 7:93.1427 8:92.825 9:92.9717 
1 1:28.5792 2:28.4544 3:28.5216 4:67.7991 5:67.6237 6:67.6961 7:93.1427 8:92.6979 9:92.9301 
1 1:28.704 2:28.5792 3:28.6632 4:67.4863 5:67.3261 6:67.4056 7:93.0156 8:92.8886 9:92.9277 
1 1:28.8288 2:28.704 3:28.776 4:67.1812 5:67.0743 6:67.1236 7:93.0156 8:92.825 9:92.9008 
1 1:28.8912 2:28.7664 3:28.8213 4:67.0743 5:66.9904 6:67.0469 7:93.0156 8:92.825 9:92.9038 
1 1:28.8912 2:28.8288 3:28.8704 4:66.998 5:66.9141 6:66.9653 7:93.0792 8:92.825 9:92.9145 
1 1:29.016 2:28.8912 3:28.9536 4:66.8302 5:66.7463 6:66.7838 7:93.0156 8:92.8886 9:92.9497 
1 1:29.016 2:28.9536 3:28.9885 4:66.7463 5:66.7158 6:66.7316 7:93.0156 8:92.825 9:92.9292 
1 1:29.2032 2:29.1408 3:29.2007 4:66.3724 5:66.3114 6:66.3578 7:93.0156 8:92.825 9:92.9826 
1 1:29.2656 2:29.2032 3:29.2148 4:66.3724 5:66.3419 6:66.343 7:93.0792 8:92.8886 9:92.9803 
1 1:29.2656 2:29.2032 3:29.2207 4:66.3419 5:66.3419 6:66.3419 7:93.0156 8:92.8886 9:92.9826 
1 1:29.2656 2:29.2032 3:29.2464 4:66.3419 5:66.3419 6:66.3419 7:93.0156 8:92.8886 9:92.9668 
1 1:29.2656 2:29.2032 3:29.2608 4:66.3114 5:66.3114 6:66.3114 7:93.0156 8:92.8886 9:92.9814 
1 1:29.328 2:29.2656 3:29.2728 4:66.3419 5:66.3114 6:66.322 7:93.0156 8:92.7615 9:92.9521 
1 1:29.328 2:29.2656 3:29.304 4:66.3724 5:66.3419 6:66.3537 7:93.0156 8:92.7615 9:92.979 
1 1:29.328 2:29.2656 3:29.308 4:66.403 5:66.3724 6:66.381 7:93.0792 8:92.8886 9:92.9801 
1 1:29.328 2:29.2656 3:29.3112 4:66.403 5:66.3724 6:66.3795 7:93.0792 8:92.8886 9:92.9741 
1 1:29.328 2:29.2656 3:29.3136 4:66.4335 5:66.403 6:66.4076 7:93.0156 8:92.7615 9:92.9863 
1 1:29.328 2:29.2656 3:29.3208 4:66.4335 5:66.403 6:66.4182 7:93.0156 8:92.8886 9:92.9814 
1 1:29.3904 2:29.2656 3:29.323 4:66.4335 5:66.403 6:66.4164 7:93.0792 8:92.8886 9:92.9623 
1 1:29.328 2:29.2656 3:29.323 4:66.464 5:66.4335 6:66.4445 7:93.0156 8:92.8886 9:92.9572 
1 1:29.3904 2:29.2656 3:29.328 4:66.4335 5:66.403 6:66.4323 7:93.0156 8:92.8886 9:92.957 
1 1:29.3904 2:29.2656 3:29.3303 4:66.5861 5:66.5555 6:66.5691 7:93.0156 8:92.8886 9:92.9827 
1 1:29.3904 2:29.328 3:29.338 4:66.5861 5:66.5555 6:66.5702 7:93.0792 8:92.8886 9:92.9877 
1 1:29.3904 2:29.2656 3:29.3328 4:66.731 5:66.5555 6:66.6119 7:93.0792 8:92.8886 9:92.9717 
1 1:29.3904 2:29.2656 3:29.3205 4:66.8378 5:66.7615 6:66.8125 7:93.0792 8:92.7615 9:92.9648 
1 1:29.328 2:29.2656 3:29.304 4:66.8149 5:66.7844 6:66.7903 7:93.0156 8:92.8886 9:92.979 
1 1:29.328 2:29.2656 3:29.3055 4:66.8149 5:66.8149 6:66.8149 7:93.0156 8:92.8886 9:92.9978 
1 1:29.328 2:29.2656 3:29.2944 4:66.8149 5:66.7615 6:66.7947 7:93.0156 8:92.8886 9:92.9692 
1 1:29.328 2:29.2656 3:29.2906 4:66.8149 5:66.7615 6:66.7838 7:93.0792 8:92.8886 9:92.9826 
1 1:29.328 2:29.2656 3:29.2848 4:66.8149 5:66.7844 6:66.8067 7:93.0792 8:92.8886 9:92.979 
1 1:29.328 2:29.2656 3:29.308 4:66.8149 5:66.7615 6:66.7881 7:93.0792 8:92.7615 9:92.9648 
1 1:29.328 2:29.2656 3:29.3205 4:66.8149 5:66.7844 6:66.7954 7:93.0156 8:92.8886 9:92.9775 
1 1:29.328 2:29.2656 3:29.3256 4:66.8683 5:66.8149 6:66.8384 7:93.0156 8:92.7615 9:92.9668 
1 1:29.328 2:29.2656 3:29.323 4:66.8378 5:66.8149 6:66.8214 7:93.0792 8:92.8886 9:92.9826 
1 1:29.328 2:29.2032 3:29.268 4:67.204 5:66.9828 6:67.0726 7:93.0156 8:92.7615 9:92.9741 
1 1:29.2656 2:29.2032 3:29.2631 4:67.1812 5:66.9294 6:67.056 7:93.0156 8:92.8886 9:92.9801 
1 1:29.328 2:29.2032 3:29.2656 4:67.2346 5:67.0133 6:67.1488 7:93.0156 8:92.825 9:92.9724 
1 1:29.2656 2:29.2032 3:29.2207 4:67.5168 5:67.3795 6:67.4399 7:93.0156 8:92.8886 9:92.9801 
1 1:29.2656 2:29.2032 3:29.2182 4:67.1201 5:66.9294 6:66.988 7:93.0156 8:92.8886 9:92.9775 
1 1:29.2656 2:29.1408 3:29.2101 4:67.1201 5:67.0133 6:67.089 7:93.0156 8:92.8886 9:92.9803 
1 1:29.2656 2:29.2032 3:29.2132 4:67.0667 5:66.9294 6:67.006 7:93.0156 8:92.825 9:92.9521 
1 1:29.2032 2:29.1408 3:29.2007 4:67.1201 5:67.0057 6:67.071 7:93.0156 8:92.8886 9:92.9978 
1 1:29.2656 2:29.1408 3:29.2057 4:66.9294 5:66.8912 6:66.923 7:93.0156 8:92.825 9:92.9724 
1 1:30.576 2:30.3888 3:30.4776 4:64.2896 5:63.8166 6:64.0675 7:93.1427 8:92.8886 9:92.9912 
1 1:30.264 2:30.2016 3:30.252 4:64.755 5:64.5872 6:64.6599 7:93.0156 8:92.825 9:92.957 
1 1:30.1392 2:30.0768 3:30.1056 4:65.2662 5:64.9686 6:65.0684 7:93.0792 8:92.825 9:92.9643 
1 1:30.0768 2:29.952 3:29.9904 4:65.6476 5:65.4722 6:65.5772 7:93.2063 8:92.825 9:92.9912 
1 1:29.952 2:29.8272 3:29.8872 4:65.8231 5:65.5866 6:65.6964 7:93.1427 8:92.8886 9:93.0327 
1 1:29.7024 2:29.64 3:29.6832 4:66.4411 5:66.3801 6:66.4118 7:93.1427 8:92.7615 9:93.0181 
1 1:29.7024 2:29.64 3:29.6575 4:66.5632 5:66.4106 6:66.4814 7:93.0792 8:92.9521 9:93.0106 
1 1:29.64 2:29.5776 3:29.6304 4:66.6547 5:66.5937 6:66.6336 7:93.1427 8:92.8886 9:93.0303 
1 1:29.64 2:29.5776 3:29.6125 4:66.7692 5:66.6547 6:66.6944 7:93.0792 8:92.9521 9:93.0106 
1 1:29.5776 2:29.5152 3:29.5651 4:66.8531 5:66.7692 6:66.8146 7:93.0792 8:92.8886 9:92.9826 
1 1:29.5776 2:29.5152 3:29.5296 4:66.7997 5:66.7692 6:66.7833 7:93.1427 8:92.8886 9:93.0376 
1 1:29.5152 2:29.4528 3:29.4792 4:66.9599 5:66.9065 6:66.9379 7:93.0792 8:92.8886 9:93.0034 
1 1:29.5152 2:29.4528 3:29.4603 4:66.9599 5:66.9065 6:66.9456 7:93.0792 8:92.8886 9:92.9851 
1 1:29.5152 2:29.3904 3:29.4551 4:66.9599 5:66.9294 6:66.9452 7:93.0792 8:92.8886 9:93.0062 
1 1:29.4528 2:29.3904 3:29.4432 4:67.0972 5:67.0743 6:67.0858 7:93.0792 8:92.8886 9:92.9912 
1 1:29.4528 2:29.3904 3:29.4 4:67.0743 5:66.9599 6:66.9907 7:93.0792 8:92.8886 9:92.9717 
1 1:29.4528 2:29.328 3:29.3904 4:67.3261 5:67.1277 6:67.185 7:93.0792 8:92.8886 9:92.9961 
1 1:29.3904 2:29.328 3:29.376 4:67.41 5:67.2117 6:67.3346 7:93.0156 8:92.8886 9:92.9839 
1 1:29.3904 2:29.328 3:29.3328 4:67.4024 5:67.3795 6:67.398 7:93.0792 8:92.8886 9:92.9961 
1 1:29.3904 2:29.328 3:29.3305 4:67.3795 5:67.3185 6:67.3466 7:93.0792 8:92.8886 9:92.9724 
1 1:29.328 2:29.2656 3:29.3208 4:67.349 5:67.288 6:67.3079 7:93.0792 8:92.8886 9:92.9888 
1 1:29.328 2:29.2656 3:29.298 4:67.5703 5:67.4024 6:67.486 7:93.0792 8:92.8886 9:92.9953 
1 1:29.328 2:29.2656 3:29.2896 4:67.7991 5:67.5703 6:67.6856 7:93.0156 8:92.8886 9:92.9814 
1 1:29.328 2:29.2656 3:29.303 4:67.7381 5:67.7152 6:67.7161 7:93.0156 8:92.8886 9:92.9953 
1 1:29.328 2:29.2656 3:29.2956 4:67.7152 5:67.6847 6:67.692 7:93.0156 8:92.8886 9:92.9851 
1 1:29.328 2:29.2656 3:29.2944 4:67.7686 5:67.7381 6:67.7498 7:93.0792 8:92.8886 9:92.9839 
1 1:29.328 2:29.2656 3:29.2681 4:67.7152 5:67.6542 6:67.6835 7:93.0156 8:92.825 9:92.9775 
1 1:29.328 2:29.2656 3:29.2728 4:67.7991 5:67.7152 6:67.7771 7:93.0156 8:92.8886 9:93.001 
1 1:29.328 2:29.2656 3:29.2704 4:67.7991 5:67.7381 6:67.7792 7:93.0792 8:92.8886 9:93.0034 
1 1:29.328 2:29.2656 3:29.2708 4:67.7991 5:67.7152 6:67.74 7:93.0156 8:92.8886 9:92.9945 
1 1:29.2656 2:29.2032 3:29.2631 4:67.8831 5:67.822 6:67.8599 7:93.0156 8:92.8886 9:92.9953 
-1 1:29.5776 2:29.4528 3:29.5008 4:68.6689 5:68.5316 6:68.5879 7:92.8886 8:92.6344 9:92.7762 
-1 1:27.456 2:27.456 3:27.456 4:74.6427 5:74.6427 6:74.6427 7:93.2063 8:93.0156 9:93.0792 
-1 1:27.5808 2:27.456 3:27.5376 4:74.6198 5:74.2689 6:74.4332 7:93.2063 8:93.0156 9:93.0694 
-1 1:27.768 2:27.6432 3:27.7104 4:73.9332 5:73.7043 6:73.8217 7:93.2063 8:92.9521 9:93.1012 
-1 1:27.8928 2:27.8304 3:27.8554 4:73.4373 5:73.3839 6:73.4141 7:93.2698 8:92.9521 9:93.1275 
-1 1:27.8928 2:27.8304 3:27.8856 4:73.4373 5:73.3228 6:73.3915 7:93.2698 8:93.0792 9:93.1305 
-1 1:27.9552 2:27.8928 3:27.9159 4:73.155 5:73.1016 6:73.1295 7:93.2698 8:93.0156 9:93.1309 
-1 1:27.9552 2:27.8928 3:27.9427 4:73.1397 5:73.071 6:73.1052 7:93.2698 8:93.0156 9:93.1249 
-1 1:27.9552 2:27.8928 3:27.948 4:73.0863 5:73.0253 6:73.0675 7:93.2698 8:93.0156 9:93.1403 
-1 1:27.9552 2:27.9552 3:27.9552 4:73.0253 5:73.0253 6:73.0253 7:93.2698 8:93.0156 9:93.1173 
-1 1:28.0176 2:27.9552 3:27.9744 4:72.949 5:72.949 6:72.949 7:93.1427 8:93.0156 9:93.1085 
-1 1:28.0176 2:27.9552 3:27.9702 4:72.949 5:72.9185 6:72.9404 7:93.1427 8:93.0156 9:93.1224 
-1 1:28.0176 2:27.8928 3:27.96 4:73.0558 5:72.949 6:72.9848 7:93.2698 8:93.0156 9:93.1109 
-1 1:28.0176 2:27.8928 3:27.9577 4:72.949 5:72.8345 6:72.8782 7:93.1427 8:93.0156 9:93.1122 
-1 1:28.0176 2:27.8928 3:27.96 4:72.9185 5:72.8879 6:72.8985 7:93.2698 8:92.9521 9:93.0938 
-1 1:28.0176 2:27.9552 3:27.9627 4:72.8879 5:72.8345 6:72.8782 7:93.1427 8:93.0156 9:93.0893 
-1 1:28.0176 2:27.9552 3:27.9696 4:72.8574 5:72.8345 6:72.8381 7:93.2698 8:92.9521 9:93.1109 
-1 1:28.0176 2:27.9552 3:27.9602 4:72.8879 5:72.7964 6:72.8379 7:93.1427 8:92.8886 9:93.1224 
-1 1:28.0176 2:27.8928 3:27.9552 4:72.8879 5:72.8345 6:72.8516 7:93.1427 8:93.0156 9:93.1021 
-1 1:27.9552 2:27.8928 3:27.9352 4:72.8345 5:72.7964 6:72.833 7:93.2698 8:93.0156 9:93.1249 
-1 1:27.9552 2:27.8928 3:27.9277 4:72.9871 5:72.9108 6:72.9655 7:93.1427 8:92.9521 9:93.0919 
-1 1:27.9552 2:27.8304 3:27.8878 4:73.071 5:72.9871 6:73.0222 7:93.2698 8:93.0156 9:93.1173 
-1 1:27.8928 2:27.8304 3:27.8753 4:73.0482 5:73.0482 6:73.0482 7:93.1427 8:92.8886 9:93.0868 
-1 1:27.8928 2:27.8304 3:27.8664 4:73.0482 5:73.0176 6:73.047 7:93.1427 8:92.9521 9:93.1036 
-1 1:27.8928 2:27.8304 3:27.8424 4:73.1016 5:73.0482 6:73.0734 7:93.1427 8:92.825 9:93.1012 
-1 1:27.8928 2:27.768 3:27.8379 4:73.1016 5:73.071 6:73.0833 7:93.2063 8:92.9521 9:93.1071 
-1 1:27.8928 2:27.8304 3:27.84 4:73.1016 5:73.071 6:73.0781 7:93.1427 8:93.0156 9:93.1036 
-1 1:27.8928 2:27.8304 3:27.8479 4:73.1321 5:73.071 6:73.1077 7:93.1427 8:92.9521 9:93.1071 
-1 1:27.8928 2:27.8304 3:27.8376 4:73.1016 5:73.0482 6:73.0652 7:93.2698 8:92.9521 9:93.1012 
-1 1:27.8928 2:27.8304 3:27.8472 4:73.0482 5:72.9108 6:72.9959 7:93.2698 8:92.9521 9:93.1036 
-1 1:27.8928 2:27.8304 3:27.8404 4:73.071 5:73.071 6:73.071 7:93.1427 8:92.9521 9:93.0995 
-1 1:27.8304 2:27.8304 3:27.8304 4:73.071 5:73.0482 6:73.0631 7:93.2063 8:92.825 9:93.0792 
-1 1:27.8304 2:27.768 3:27.8208 4:73.1321 5:73.1016 6:73.1039 7:93.2698 8:92.9521 9:93.1085 
-1 1:27.8304 2:27.768 3:27.778 4:73.2389 5:73.1321 6:73.2044 7:93.1427 8:92.9521 9:93.0741 
-1 1:27.8304 2:27.7056 3:27.768 4:73.2999 5:73.216 6:73.2509 7:93.1427 8:93.0792 9:93.089 
-1 1:27.768 2:27.7056 3:27.7605 4:73.3533 5:73.2847 6:73.2966 7:93.2063 8:92.9521 9:93.0843 
-1 1:27.768 2:27.7056 3:27.7505 4:73.3839 5:73.2999 6:73.3286 7:93.2698 8:92.9521 9:93.0766 
-1 1:27.768 2:27.7056 3:27.7455 4:73.3228 5:73.2618 6:73.2804 7:93.1427 8:92.9521 9:93.0817 
-1 1:27.768 2:27.7056 3:27.72 4:73.3686 5:73.3152 6:73.3495 7:93.1427 8:92.9521 9:93.0792 
-1 1:27.768 2:27.7056 3:27.732 4:73.3533 5:73.3152 6:73.3167 7:93.1427 8:92.9521 9:93.0718 
-1 1:27.768 2:27.7056 3:27.7331 4:73.3152 5:73.3152 6:73.3152 7:93.1427 8:92.9521 9:93.0741 
-1 1:27.768 2:27.7056 3:27.7206 4:73.3457 5:73.2847 6:73.3127 7:93.2063 8:92.825 9:93.0538 
-1 1:27.7056 2:27.6432 3:27.6864 4:73.5975 5:73.4296 6:73.5499 7:93.0792 8:92.9521 9:93.0743 
-1 1:27.7056 2:27.6432 3:27.6756 4:73.6204 5:73.483 6:73.5706 7:93.1427 8:92.9521 9:93.0665 
-1 1:27.7056 2:27.6432 3:27.6576 4:73.483 5:73.4525 6:73.4537 7:93.0792 8:92.9521 9:93.067 
-1 1:27.7056 2:27.6432 3:27.6532 4:73.5135 5:73.483 6:73.5099 7:93.1427 8:92.8886 9:93.0563 
-1 1:27.7056 2:27.6432 3:27.6756 4:73.3991 5:73.3991 6:73.3991 7:93.2063 8:92.9521 9:93.0665 
-1 1:27.7056 2:27.6432 3:27.6936 4:73.3991 5:73.3457 6:73.3815 7:93.2063 8:93.0792 9:93.0841 
-1 1:27.7056 2:27.6432 3:27.6744 4:73.4296 5:73.3457 6:73.3856 7:93.1427 8:92.9521 9:93.067 
-1 1:27.7056 2:27.6432 3:27.648 4:73.4296 5:73.3991 6:73.4226 7:93.2063 8:92.9521 9:93.0718 
-1 1:27.6432 2:27.5808 3:27.636 4:73.5135 5:73.4296 6:73.4622 7:93.2063 8:92.9521 9:93.0767 
-1 1:27.6432 2:27.5808 3:27.6232 4:73.5135 5:73.4525 6:73.4977 7:93.2063 8:92.9521 9:93.0792 
-1 1:27.6432 2:27.5808 3:27.6216 4:73.567 5:73.4296 6:73.4499 7:93.2063 8:92.825 9:93.067 
-1 1:27.5808 2:27.5184 3:27.5783 4:73.7653 5:73.5975 6:73.7046 7:93.2063 8:92.9521 9:93.0716 
-1 1:27.6432 2:27.5808 3:27.5904 4:73.7653 5:73.6204 6:73.7055 7:93.0792 8:92.9521 9:93.0621 
-1 1:27.6432 2:27.5808 3:27.6096 4:73.5135 5:73.483 6:73.4842 7:93.0792 8:92.9521 9:93.0425 
-1 1:27.6432 2:27.5808 3:27.624 4:73.4525 5:73.3457 6:73.4267 7:93.0792 8:92.9521 9:93.0572 
-1 1:27.6432 2:27.5808 3:27.6168 4:73.567 5:73.4296 6:73.4516 7:93.2063 8:92.8886 9:93.0694 
-1 1:27.6432 2:27.5808 3:27.5832 4:73.4525 5:73.4296 6:73.4481 7:93.0792 8:92.825 9:93.0279 
-1 1:27.6432 2:27.5808 3:27.5883 4:73.483 5:73.4296 6:73.4492 7:93.0792 8:92.9521 9:93.0538 
-1 1:27.6432 2:27.5808 3:27.5976 4:73.3991 5:73.3457 6:73.3739 7:93.0792 8:92.9521 9:93.0499 
-1 1:27.6432 2:27.5184 3:27.5833 4:73.483 5:73.3686 6:73.4055 7:93.0792 8:92.825 9:93.0309 
-1 1:27.5808 2:27.5184 3:27.5533 4:73.6509 5:73.5593 6:73.5908 7:93.0792 8:92.8886 9:93.0461 
-1 1:27.5808 2:27.5184 3:27.5369 4:73.6204 5:73.4754 6:73.5435 7:93.0792 8:92.825 9:93.0203 
-1 1:27.5808 2:27.5184 3:27.5309 4:73.5288 5:73.4754 6:73.4904 7:93.0792 8:92.8886 9:93.0156 
-1 1:27.5808 2:27.5184 3:27.5304 4:73.5822 5:73.4754 6:73.5532 7:93.1427 8:92.8886 9:93.0327 
-1 1:27.5184 2:27.456 3:27.4704 4:73.7272 5:73.5822 6:73.6412 7:93.2063 8:92.8886 9:93.0474 
-1 1:27.5184 2:27.456 3:27.4785 4:73.6127 5:73.5822 6:73.603 7:93.0792 8:92.9521 9:93.0258 
-1 1:27.5184 2:27.456 3:27.4848 4:73.6127 5:73.5822 6:73.601 7:93.0792 8:92.8886 9:93.023 
-1 1:27.5184 2:27.456 3:27.486 4:73.5822 5:73.5288 6:73.5514 7:93.2063 8:92.8886 9:93.0283 
-1 1:27.5184 2:27.456 3:27.4584 4:73.6967 5:73.5288 6:73.6242 7:93.0792 8:92.8886 9:93.0254 
-1 1:27.456 2:27.3936 3:27.4488 4:73.7272 5:73.6967 6:73.7201 7:93.0792 8:92.9521 9:93.0376 
-1 1:27.456 2:27.3936 3:27.4488 4:73.6967 5:73.6432 6:73.6582 7:93.0792 8:92.8886 9:93.0254 
-1 1:27.456 2:27.3936 3:27.441 4:73.6661 5:73.6127 6:73.642 7:93.0792 8:92.8886 9:93.0258 
-1 1:27.456 2:27.3936 3:27.3961 4:73.9179 5:73.8645 6:73.8898 7:93.2063 8:92.8886 9:93.008 
-1 1:27.3936 2:27.3312 3:27.3487 4:73.9637 5:73.7424 6:73.8328 7:93.0792 8:92.8886 9:93.0156 
-1 1:27.3312 2:27.2688 3:27.3262 4:73.9942 5:73.9637 6:73.9673 7:93.0792 8:92.8886 9:93.0182 
-1 1:27.3936 2:27.2688 3:27.3288 4:73.9637 5:73.9103 6:73.9349 7:93.0792 8:92.8886 9:93.0108 
-1 1:27.3312 2:27.2688 3:27.2952 4:73.8264 5:73.7958 6:73.7994 7:93.0792 8:93.0156 9:93.0279 
-1 1:27.3312 2:27.2064 3:27.2736 4:73.7958 5:73.689 6:73.7175 7:93.0792 8:92.8886 9:93.0132 
-1 1:27.3312 2:27.2688 3:27.2813 4:73.8264 5:73.7958 6:73.8019 7:93.0792 8:92.8886 9:93.008 
-1 1:27.2688 2:27.2064 3:27.2664 4:73.8264 5:73.7119 6:73.7794 7:93.0792 8:92.8886 9:93.0108 
-1 1:27.2688 2:27.2688 3:27.2688 4:73.7424 5:73.7119 6:73.7131 7:93.0792 8:92.8886 9:93.0106 
-1 1:27.3312 2:27.2064 3:27.2592 4:73.7958 5:73.7119 6:73.7383 7:93.0156 8:92.8886 9:93.0059 
-1 1:27.2688 2:27.2064 3:27.2463 4:73.7119 5:73.628 6:73.6799 7:93.0792 8:92.8886 9:93.008 
-1 1:26.7696 2:26.7072 3:26.7592 4:74.513 5:74.2612 6:74.3884 7:93.0156 8:92.8886 9:92.9097 
-1 1:26.8944 2:26.7696 3:26.832 4:74.2612 5:74.1086 6:74.1865 7:93.0792 8:92.8886 9:92.9216 
-1 1:27.0816 2:27.0192 3:27.0384 4:73.4754 5:73.3076 6:73.3935 7:93.0792 8:92.825 9:92.9765 
-1 1:27.0816 2:27.0192 3:27.048 4:73.3686 5:73.2236 6:73.2976 7:93.0792 8:92.8886 9:92.9863 
-1 1:26.9568 2:26.832 3:26.8819 4:73.9561 5:73.5517 6:73.7923 7:93.0792 8:92.8886 9:92.9225 
-1 1:27.144 2:26.9568 3:27.0641 4:73.5212 5:72.8345 6:73.1986 7:93.0792 8:92.825 9:92.9699 
-1 1:27.768 2:27.6432 3:27.7131 4:70.8051 5:70.6068 6:70.6855 7:93.0156 8:92.825 9:92.9318 
-1 1:27.8304 2:27.768 3:27.7872 4:70.5839 5:70.5076 6:70.5566 7:93.0156 8:92.825 9:92.9448 
-1 1:27.8928 2:27.768 3:27.8504 4:70.5076 5:70.2253 6:70.3211 7:93.0156 8:92.825 9:92.9267 
-0.72785987720916179 1:27.9552 2:27.8304 3:27.8952 4:70.2253 5:69.9735 6:70.1179 7:93.0156 8:92.825 9:92.935 
-1 1:28.08 2:28.0176 3:28.0301 4:69.8972 5:69.6454 6:69.7938 7:93.0792 8:92.825 9:92.9445 
-1 1:28.1424 2:28.08 3:28.1256 4:69.4623 5:69.0885 6:69.2737 7:93.0792 8:92.8886 9:92.9374 
-1 1:28.1424 2:28.08 3:28.1274 4:69.0351 5:68.8596 6:68.9393 7:93.0792 8:92.8886 9:92.9572 
-1 1:28.1424 2:28.08 3:28.1304 4:68.9588 5:68.8596 6:68.9207 7:93.0792 8:92.8886 9:92.9497 
-1 1:28.2048 2:28.08 3:28.1448 4:69.0122 5:68.8978 6:68.95 7:93.0792 8:92.8886 9:92.9741 
-1 1:28.2048 2:28.1424 3:28.1544 4:69.0122 5:68.8978 6:68.9092 7:93.0792 8:92.8886 9:92.9619 
-1 1:28.2672 2:28.2048 3:28.2098 4:68.9817 5:68.7299 6:68.8264 7:93.0792 8:92.8886 9:92.9699 
-1 1:28.3296 2:28.2672 3:28.3157 4:68.295 5:68.1196 6:68.1829 7:93.0792 8:92.8886 9:92.9545 
-1 1:28.3296 2:28.2672 3:28.3176 4:68.2645 5:68.0585 6:68.1768 7:93.0792 8:92.825 9:92.9521 
-1 1:28.3296 2:28.2672 3:28.3196 4:68.2645 5:68.2111 6:68.2429 7:93.0792 8:92.7615 9:92.9623 
-1 1:28.3296 2:28.2672 3:28.3152 4:68.234 5:68.0967 6:68.1539 7:93.1427 8:92.825 9:92.9888 
-1 1:28.392 2:28.3296 3:28.3321 4:68.295 5:68.2111 6:68.2502 7:93.0792 8:92.825 9:92.9699 
-1 1:28.392 2:28.3296 3:28.332 4:68.234 5:68.0662 6:68.158 7:93.0792 8:92.825 9:92.9741 
-1 1:28.3296 2:28.2672 3:28.3221 4:68.1272 5:67.9746 6:68.0466 7:93.0792 8:92.825 9:92.9445 
-1 1:28.3296 2:28.2672 3:28.3196 4:68.1501 5:67.9746 6:68.0674 7:93.0792 8:92.9521 9:92.9775 
-1 1:28.3296 2:28.2672 3:28.3176 4:68.1501 5:68.0128 6:68.0767 7:93.0792 8:92.825 9:92.9668 
-1 1:28.3296 2:28.2672 3:28.32 4:68.0967 5:67.8983 6:67.9884 7:93.0792 8:92.8886 9:92.9741 
-1 1:28.392 2:28.2672 3:28.3271 4:68.1272 5:67.9288 6:68.0002 7:93.0792 8:92.825 9:92.9572 
-1 1:28.3296 2:28.2672 3:28.3248 4:68.1806 5:67.9822 6:68.0788 7:93.1427 8:92.9521 9:92.9961 
-1 1:28.392 2:28.3296 3:28.3321 4:68.2111 5:68.1272 6:68.1483 7:93.0792 8:92.825 9:92.9648 
-1 1:28.392 2:28.3296 3:28.3368 4:68.1806 5:67.8983 6:68.0864 7:93.0156 8:92.825 9:92.9301 
-1 1:28.392 2:28.3296 3:28.3396 4:68.0662 5:67.9594 6:68.017 7:93.1427 8:92.825 9:92.9801 
-1 1:28.392 2:28.3296 3:28.3392 4:68.0967 5:68.0128 6:68.0395 7:93.1427 8:92.825 9:92.979 
-1 1:28.3296 2:28.2672 3:28.3176 4:68.1501 5:67.9822 6:68.0486 7:93.0792 8:92.825 9:92.9814 
-1 1:28.3296 2:28.2672 3:28.3224 4:68.0967 5:67.9822 6:68.0506 7:93.1427 8:92.8886 9:92.9888 
-1 1:28.3296 2:28.2672 3:28.3221 4:68.0662 5:67.9822 6:68.0118 7:93.1427 8:92.825 9:92.9877 
-1 1:28.392 2:28.2672 3:28.3272 4:68.1272 5:68.0128 6:68.0861 7:93.0792 8:92.825 9:92.9765 
-1 1:28.3296 2:28.2672 3:28.3246 4:68.1272 5:67.9594 6:68.0137 7:93.1427 8:92.825 9:92.9801 
-1 1:28.3296 2:28.2672 3:28.3272 4:68.0967 5:67.9822 6:68.013 7:93.0792 8:92.8886 9:92.957 
-1 1:28.392 2:28.2672 3:28.3196 4:68.1272 5:67.9288 6:68.0308 7:93.0792 8:92.9521 9:92.9775 
-1 1:28.3296 2:28.2672 3:28.3224 4:68.1272 5:68.0128 6:68.0923 7:93.1427 8:92.9521 9:92.9912 
-1 1:28.3296 2:28.2672 3:28.3248 4:68.0128 5:67.9288 6:67.9726 7:93.0792 8:92.8886 9:92.9741 
-1 1:28.3296 2:28.2672 3:28.3224 4:67.9288 5:67.7076 6:67.8085 7:93.1427 8:92.825 9:92.9668 
-1 1:28.3296 2:28.2672 3:28.3248 4:67.9288 5:67.8144 6:67.8834 7:93.0792 8:92.8886 9:92.9814 
-1 1:28.3296 2:28.2672 3:28.3272 4:67.8449 5:67.7915 6:67.8159 7:93.1427 8:92.9521 9:93.0108 
-1 1:28.3296 2:28.2672 3:28.3271 4:67.9822 5:67.8449 6:67.894 7:93.0792 8:92.825 9:92.9699 
-1 1:28.392 2:28.3296 3:28.3321 4:67.9822 5:67.8754 6:67.963 7:93.1427 8:92.825 9:92.9775 
-1 1:28.392 2:28.2672 3:28.3346 4:68.0128 5:67.9288 6:67.9774 7:93.1427 8:92.7615 9:92.9623 
-1 1:28.3296 2:28.2672 3:28.3246 4:67.761 5:67.6465 6:67.6862 7:93.0792 8:92.825 9:92.9699 
-1 1:28.3296 2:28.2672 3:28.2972 4:67.8144 5:67.616 6:67.7027 7:93.0792 8:92.825 9:92.9826 
-1 1:28.3296 2:28.2672 3:28.32 4:67.8983 5:67.7915 6:67.8795 7:93.0792 8:92.825 9:92.9692 
-1 1:28.3296 2:28.2672 3:28.2972 4:67.761 5:67.555 6:67.6237 7:93.1427 8:92.825 9:92.9826 
-1 1:28.3296 2:28.2672 3:28.3128 4:67.7915 5:67.616 6:67.7029 7:93.0792 8:92.825 9:92.9692 
-1 1:28.3296 2:28.2672 3:28.3096 4:67.8144 5:67.761 6:67.7753 7:93.0792 8:92.825 9:92.9521 
-1 1:28.3296 2:28.2672 3:28.3056 4:67.8449 5:67.6465 6:67.7862 7:93.0792 8:92.825 9:92.9741 
-1 1:28.3296 2:28.2672 3:28.3096 4:67.6465 5:67.5931 6:67.6179 7:93.1427 8:92.9521 9:92.9851 
-1 1:28.3296 2:28.2672 3:28.2772 4:67.555 5:67.3337 6:67.4238 7:93.1427 8:92.825 9:92.9801 
-1 1:28.3296 2:28.2672 3:28.2722 4:67.555 5:67.3032 6:67.4265 7:93.0792 8:92.825 9:92.9928 
-1 1:28.2672 2:28.2048 3:28.2572 4:67.616 5:67.5016 6:67.5779 7:93.1427 8:92.8886 9:92.9801 
-1 1:28.2672 2:28.2672 3:28.2672 4:67.5321 5:67.4177 6:67.5039 7:93.0792 8:92.8886 9:92.9741 
-1 1:28.3296 2:28.2672 3:28.2697 4:67.6389 5:67.5321 6:67.5751 7:93.0792 8:92.8886 9:92.9978 
-1 1:28.3296 2:28.2048 3:28.2696 4:67.7534 5:67.6694 6:67.7164 7:93.0792 8:92.8886 9:92.957 
-1 1:28.3296 2:28.2672 3:28.2697 4:67.7839 5:67.6694 6:67.7238 7:93.0792 8:92.8886 9:92.9674 
-1 1:28.3296 2:28.2672 3:28.2744 4:67.8068 5:67.7534 6:67.793 7:93.0792 8:92.8886 9:92.9912 
-1 1:28.3296 2:28.2672 3:28.2816 4:67.7228 5:67.616 6:67.67 7:93.0792 8:92.9521 9:92.979 
-1 1:28.3296 2:28.2672 3:28.2722 4:67.8068 5:67.7228 6:67.7701 7:93.1427 8:92.8886 9:92.9851 
-1 1:28.3296 2:28.2672 3:28.272 4:67.8373 5:67.7839 6:67.8135 7:93.0792 8:92.825 9:92.9961 
-1 1:28.3296 2:28.2672 3:28.2697 4:67.8373 5:67.6389 6:67.7903 7:93.1427 8:92.9521 9:92.9928 
-1 1:28.3296 2:28.2672 3:28.2744 4:67.616 5:67.5321 6:67.5661 7:93.1427 8:92.9521 9:92.9961 
-1 1:28.3296 2:28.2672 3:28.2697 4:67.7534 5:67.555 6:67.6517 7:93.0792 8:92.9521 9:92.9902 
-1 1:28.3296 2:28.2672 3:28.2764 4:67.8068 5:67.7228 6:67.7791 7:93.0792 8:92.825 9:92.9639 
-1 1:28.3296 2:28.2672 3:28.2722 4:67.5321 5:67.4177 6:67.4766 7:93.0792 8:92.8886 9:92.975 
-1 1:28.3296 2:28.2672 3:28.2897 4:67.6771 5:67.555 6:67.6255 7:93.0792 8:92.9521 9:92.9902 
-1 1:28.3296 2:28.2048 3:28.2772 4:67.5855 5:67.5016 6:67.5413 7:93.0792 8:92.9521 9:93.0004 
-1 1:28.3296 2:28.2672 3:28.2797 4:67.5321 5:67.3337 6:67.4659 7:93.0792 8:92.825 9:92.9648 
-1 1:28.3296 2:28.2672 3:28.2772 4:67.616 5:67.555 6:67.5806 7:93.0792 8:92.825 9:92.975 
-1 1:28.3296 2:28.2672 3:28.2696 4:67.5855 5:67.4711 6:67.5174 7:93.0792 8:92.8886 9:92.9888 
-1 1:28.3296 2:28.2048 3:28.2672 4:67.5855 5:67.5016 6:67.5214 7:93.0792 8:92.8886 9:92.9801 
-1 1:28.2672 2:28.2048 3:28.2624 4:67.616 5:67.4177 6:67.5236 7:93.0792 8:92.8886 9:92.9912 
-1 1:28.2672 2:28.2048 3:28.2576 4:67.3643 5:67.2498 6:67.3 7:93.0792 8:92.9521 9:92.9985 
-1 1:28.3296 2:28.2048 3:28.26 4:67.3643 5:67.3337 6:67.3549 7:93.0792 8:92.8886 9:93.0156 
-1 1:28.2672 2:28.2048 3:28.2622 4:67.4711 5:67.3643 6:67.4393 7:93.1427 8:92.9521 9:92.9978 
-1 1:28.2672 2:28.2048 3:28.2622 4:67.4711 5:67.3643 6:67.4448 7:93.0792 8:92.8886 9:92.9724 
-1 1:28.3296 2:28.2672 3:28.2722 4:67.555 5:67.4177 6:67.5013 7:93.0792 8:92.8886 9:92.9978 
-0.54478877529994285 1:28.2048 2:28.1424 3:28.1688 4:68.2035 5:68.173 6:68.1941 7:93.0792 8:92.8886 9:92.9814 
-1 1:28.3296 2:28.2048 3:28.2497 4:68.173 5:68.0585 6:68.1196 7:93.0792 8:92.825 9:92.9546 
-1 1:28.5168 2:28.392 3:28.4369 4:67.9288 5:67.7915 6:67.844 7:93.1427 8:92.6979 9:92.9597 
-1 1:28.6416 2:28.5168 3:28.5942 4:67.6237 5:67.4863 6:67.5516 7:93.0156 8:92.825 9:92.9419 
-1 1:28.7664 2:28.6416 3:28.724 4:67.3261 5:67.2117 6:67.2687 7:93.1427 8:92.8886 9:92.9241 
-1 1:28.9536 2:28.8912 3:28.9236 4:66.9141 5:66.8302 6:66.858 7:93.0156 8:92.825 9:92.9292 
-1 1:29.0784 2:28.9536 3:29.0232 4:66.7158 5:66.6624 6:66.6773 7:93.0156 8:92.825 9:92.9594 
-1 1:29.0784 2:29.016 3:29.0484 4:66.67 5:66.5784 6:66.6358 7:93.0156 8:92.825 9:92.9851 
-1 1:29.1408 2:29.016 3:29.0808 4:66.5784 5:66.5479 6:66.5597 7:93.0156 8:92.825 9:92.9717 
-1 1:29.1408 2:29.0784 3:29.0959 4:66.5479 5:66.4869 6:66.5235 7:93.0156 8:92.825 9:92.9902 
-1 1:29.1408 2:29.0784 3:29.1264 4:66.4869 5:66.4335 6:66.4611 7:93.0156 8:92.8886 9:92.9839 
-1 1:29.2032 2:29.0784 3:29.1383 4:66.4335 5:66.4335 6:66.4335 7:93.0156 8:92.825 9:92.9826 
-1 1:29.2032 2:29.1408 3:29.1576 4:66.4335 5:66.403 6:66.4288 7:93.0156 8:92.825 9:92.9888 
-1 1:29.2032 2:29.1408 3:29.1832 4:66.403 5:66.3724 6:66.3993 7:93.0156 8:92.8886 9:92.9851 
-1 1:29.2032 2:29.1408 3:29.1912 4:66.3724 5:66.3419 6:66.3713 7:93.0156 8:92.825 9:92.9717 
-1 1:29.328 2:29.2032 3:29.2606 4:66.3419 5:66.3114 6:66.3212 7:93.0156 8:92.8886 9:92.9724 
-1 1:29.328 2:29.2656 3:29.2681 4:66.3419 5:66.3114 6:66.3126 7:93.0156 8:92.7615 9:93.0055 
-0.62570237137838247 1:29.328 2:29.2656 3:29.2806 4:66.3419 5:66.3114 6:66.3151 7:93.0792 8:92.8886 9:92.975 
-1 1:29.328 2:29.2656 3:29.28 4:66.3419 5:66.3114 6:66.3278 7:93.0156 8:92.8886 9:92.9765 
-1 1:29.328 2:29.2656 3:29.2896 4:66.3419 5:66.3114 6:66.3231 7:93.0156 8:92.8886 9:92.9863 
-1 1:29.328 2:29.2656 3:29.3005 4:66.3419 5:66.3419 6:66.3419 7:93.0792 8:92.8886 9:92.9801 
-1 1:29.328 2:29.2656 3:29.3184 4:66.403 5:66.3724 6:66.3795 7:93.0792 8:92.8886 9:92.979 
-1 1:29.328 2:29.2656 3:29.3255 4:66.4335 5:66.403 6:66.4237 7:93.0156 8:92.8886 9:92.9674 
-1 1:29.3904 2:29.2656 3:29.3304 4:66.464 5:66.4335 6:66.4546 7:93.0156 8:92.8886 9:92.9692 
-1 1:29.3904 2:29.2656 3:29.328 4:66.464 5:66.464 6:66.464 7:93.0156 8:92.8886 9:92.975 
-1 1:29.328 2:29.2656 3:29.3232 4:66.464 5:66.4335 6:66.4346 7:93.0792 8:92.8886 9:92.9863 
-1 1:29.3904 2:29.2656 3:29.3305 4:66.403 5:66.3419 6:66.3749 7:93.0792 8:92.8886 9:92.9801 
-1 1:29.3904 2:29.2656 3:29.3376 4:66.464 5:66.3724 6:66.4182 7:93.1427 8:92.8886 9:93.0034 
-1 1:29.3904 2:29.328 3:29.338 4:66.464 5:66.464 6:66.464 7:93.0792 8:92.8886 9:92.9953 
-1 1:29.3904 2:29.2656 3:29.3328 4:66.7844 5:66.4335 6:66.6345 7:93.0156 8:92.825 9:92.9545 
-1 1:29.328 2:29.328 3:29.328 4:66.7005 5:66.5555 6:66.6041 7:93.0792 8:92.8886 9:92.9724 
-1 1:29.328 2:29.2656 3:29.3055 4:66.7844 5:66.7615 6:66.7835 7:93.0156 8:92.8886 9:92.9521 
-1 1:29.328 2:29.2656 3:29.316 4:66.8149 5:66.7844 6:66.7879 7:93.0792 8:92.8886 9:93.0059 
-1 1:29.3904 2:29.2656 3:29.3256 4:66.7844 5:66.7615 6:66.7818 7:93.0792 8:92.8886 9:92.979 
-1 1:29.328 2:29.2656 3:29.3208 4:66.8378 5:66.8149 6:66.8185 7:93.0792 8:92.8886 9:92.9741 
-1 1:29.328 2:29.2656 3:29.3184 4:66.8683 5:66.8378 6:66.8554 7:93.0792 8:92.8886 9:92.9888 
-1 1:29.328 2:29.2656 3:29.304 4:67.4634 5:66.8149 6:67.1553 7:93.0156 8:92.8886 9:92.9912 
-1 1:29.2656 2:29.2032 3:29.2581 4:67.6847 5:67.288 6:67.4781 7:93.0156 8:92.7615 9:92.9546 
-1 1:29.2656 2:29.2032 3:29.2584 4:67.4329 5:67.2346 6:67.3839 7:93.0792 8:92.8886 9:93.0034 
-1 1:29.2656 2:29.2032 3:29.2581 4:67.4329 5:67.2346 6:67.3279 7:93.0156 8:92.8886 9:92.9674 
-1 1:29.2656 2:29.2032 3:29.2608 4:67.1201 5:67.0133 6:67.0347 7:93.0156 8:92.8886 9:92.9863 
-1 1:29.2656 2:29.2032 3:29.232 4:67.6542 5:67.4024 6:67.562 7:93.0156 8:92.8886 9:92.9912 
-1 1:29.2656 2:29.2032 3:29.22 4:67.3795 5:67.1201 6:67.2152 7:93.0792 8:92.8886 9:92.9961 
-1 1:29.2656 2:29.2032 3:29.208 4:67.0972 5:66.9828 6:67.0353 7:93.0156 8:92.8886 9:92.9912 
-1 1:29.2656 2:29.2032 3:29.2104 4:67.0362 5:66.9446 6:66.9813 7:93.0156 8:92.8886 9:92.9765 
-1 1:29.2656 2:29.2032 3:29.2104 4:66.9294 5:66.8683 6:66.8836 7:93.0156 8:92.825 9:92.9765 
-1 1:30.3888 2:30.264 3:30.3339 4:64.5566 5:64.2896 6:64.4196 7:93.0156 8:92.8886 9:92.9597 
-1 1:30.2016 2:30.1392 3:30.1766 4:64.9381 5:64.755 6:64.8575 7:93.0792 8:92.825 9:92.947 
-1 1:30.0768 2:30.0144 3:30.0493 4:65.4111 5:65.2585 6:65.3254 7:93.0792 8:92.825 9:92.9877 
-1 1:29.952 2:29.8896 3:29.9295 4:65.6476 5:65.5866 6:65.6098 7:93.0792 8:92.825 9:92.9851 
-0.45249600359810732 1:29.8272 2:29.7648 3:29.8056 4:66.0291 5:65.9757 6:65.9883 7:93.1427 8:92.825 9:93.0279 
-1 1:29.8272 2:29.7648 3:29.7672 4:66.2427 5:66.0291 6:66.1664 7:93.1427 8:92.825 9:93.0059 
-1 1:29.7648 2:29.7024 3:29.7432 4:66.3572 5:66.2733 6:66.3044 7:93.1427 8:92.7615 9:92.9961 
-1 1:29.7648 2:29.7024 3:29.7149 4:66.4182 5:66.3572 6:66.4011 7:93.1427 8:92.825 9:92.9978 
-1 1:29.64 2:29.5776 3:29.5872 4:66.7692 5:66.6776 6:66.7222 7:93.0792 8:92.825 9:92.9839 
-1 1:29.5776 2:29.4528 3:29.5252 4:66.8531 5:66.7386 6:66.8134 7:93.0792 8:92.825 9:93.0106 
-1 1:29.5152 2:29.4528 3:29.5104 4:66.876 5:66.8226 6:66.8516 7:93.0792 8:92.8886 9:93.0205 
-1 1:29.5152 2:29.4528 3:29.5052 4:66.9599 5:66.8455 6:66.9016 7:93.0792 8:92.8886 9:92.9978 
-1 1:29.4528 2:29.3904 3:29.4453 4:67.0743 5:66.9599 6:67.0527 7:93.0792 8:92.8886 9:93.008 
-1 1:29.4528 2:29.3904 3:29.4179 4:67.0972 5:67.0743 6:67.0862 7:93.2063 8:92.8886 9:93.0004 
-1 1:29.4528 2:29.3904 3:29.4004 4:67.1583 5:66.9599 6:67.0878 7:93.0792 8:92.8886 9:93.0055 
-1 1:29.4528 2:29.328 3:29.3929 4:67.4406 5:67.3261 6:67.3777 7:93.0792 8:92.8886 9:92.9877 
-1 1:29.3904 2:29.328 3:29.338 4:67.2727 5:67.1812 6:67.2236 7:93.0792 8:92.8886 9:93.0004 
-1 1:29.3904 2:29.328 3:29.3496 4:67.2346 5:67.1812 6:67.2046 7:93.0792 8:92.8886 9:92.9741 
-1 1:29.3904 2:29.328 3:29.333 4:67.3185 5:67.2346 6:67.2935 7:93.0792 8:92.8886 9:92.9953 
-1 1:29.3904 2:29.328 3:29.3424 4:67.349 5:67.3185 6:67.3396 7:93.0156 8:92.8886 9:92.979 
-1 1:29.3904 2:29.328 3:29.333 4:67.4024 5:67.349 6:67.3881 7:93.0792 8:92.8886 9:93.0004 
-1 1:29.328 2:29.2656 3:29.3155 4:67.4329 5:67.349 6:67.3871 7:93.0792 8:92.8886 9:93.0004 
-1 1:29.328 2:29.2656 3:29.3088 4:67.3795 5:67.3185 6:67.3467 7:93.0792 8:92.8886 9:93.001 
-1 1:29.328 2:29.2656 3:29.304 4:67.349 5:67.3185 6:67.3302 7:93.0792 8:92.9521 9:93.0181 
-1 1:29.328 2:29.2656 3:29.2944 4:67.3795 5:67.349 6:67.3725 7:93.1427 8:92.8886 9:93.0108 
-1 1:29.328 2:29.2656 3:29.289 4:67.7991 5:67.7152 6:67.7454 7:93.0156 8:92.8886 9:92.9892 
-1 1:29.328 2:29.2656 3:29.2881 4:67.7381 5:67.6847 6:67.707 7:93.0156 8:92.8886 9:92.9902 
-1 1:29.328 2:29.2656 3:29.28 4:67.7381 5:67.7152 6:67.7231 7:93.0156 8:92.8886 9:93.001 
-1 1:29.328 2:29.2656 3:29.2706 4:67.7991 5:67.7686 6:67.7711 7:93.0156 8:92.8886 9:92.9902 
-1 1:29.328 2:29.2656 3:29.2728 4:67.7991 5:67.7381 6:67.7757 7:93.0156 8:92.8886 9:92.9888 
-1 1:29.328 2:29.2656 3:29.2681 4:67.7381 5:67.7152 6:67.717 7:93.0792 8:92.8886 9:93.0055 
-1 1:29.2656 2:29.2032 3:29.2608 4:67.8525 5:67.7381 6:67.8217 7:93.0792 8:92.825 9:92.979 
