svm_type c_svc
kernel_type rbf
gamma 0.1111111111111111
nr_class 2
total_sv 60
rho 0.61280631078421544
label 0 1
nr_sv 15 45
SV
1 1:27.456 2:27.3936 3:27.4395 4:75.8481 5:74.4749 6:74.625 7:93.2063 8:93.0156 9:93.0437 
0.5467722907311221 1:27.6432 2:27.5808 3:27.5957 4:72.7277 5:72.4225 6:72.4999 7:93.2063 8:92.9521 9:93.077 
1 1:33.2592 2:32.448 3:33.1098 4:62.3746 5:61.7109 6:61.8716 7:93.2063 8:92.9521 9:93.058 
0.32405764967840539 1:27.3312 2:27.2688 3:27.2858 4:74.0171 5:73.628 6:73.8213 7:93.1427 8:93.0156 9:93.0407 
0.29813479683597865 1:27.456 2:27.2688 3:27.352 4:73.4754 5:73.3533 6:73.3964 7:93.1427 8:93.0156 9:93.0474 
0.56584740829122382 1:28.704 2:28.6416 3:28.6499 4:71.9495 5:71.9266 6:71.9465 7:93.1427 8:93.0156 9:93.1004 
0.73006139012393167 1:29.016 2:28.7664 3:28.8204 4:71.5146 5:70.2329 6:71.1757 7:93.2698 8:92.9521 9:93.0715 
0.49393860695559749 1:29.0784 2:29.016 3:29.0228 4:69.5157 5:69.2106 6:69.2886 7:93.2063 8:93.0156 9:93.075 
0.72946107320239351 1:29.64 2:29.328 3:29.4555 4:69.1343 5:68.7223 6:68.9895 7:93.2698 8:93.0156 9:93.1027 
0.16574851466543075 1:29.8272 2:29.7024 3:29.7526 4:68.2264 5:67.9746 6:68.0652 7:93.2063 8:93.0156 9:93.0683 
1 1:30.3888 2:30.264 3:30.3236 4:66.3343 5:65.9833 6:66.1481 7:93.2063 8:93.0156 9:93.1398 
1 1:30.3888 2:30.3264 3:30.368 4:66.0062 5:65.9833 6:65.9891 7:93.2063 8:93.0156 9:93.1162 
1 1:30.4512 2:30.3264 3:30.391 4:66.0367 5:65.7392 6:65.9918 7:93.2063 8:93.0792 9:93.1405 
1 1:30.4512 2:30.3888 3:30.4079 4:65.7392 5:65.6858 6:65.7087 7:93.2063 8:93.0792 9:93.1515 
1 1:30.4512 2:30.3888 3:30.4231 4:65.5942 5:65.4798 6:65.5687 7:93.2063 8:93.0792 9:93.1332 
-0.35328802488169198 1:35.256 2:34.3824 3:35.0631 4:48.6341 5:44.5524 6:44.9396 7:93.0156 8:92.7615 9:92.8385 
-0.28134294868947241 1:35.9424 2:35.1936 3:35.6365 4:44.5905 5:43.675 6:43.9457 7:92.8886 8:92.6979 9:92.8405 
-0.010900054636176241 1:36.4416 2:35.9424 3:36.2232 4:44.0183 5:43.53 6:43.6889 7:92.8886 8:92.7615 9:92.8361 
-0.23736823041779317 1:38.3136 2:36.9408 3:37.5726 4:44.2243 5:42.5229 6:43.5428 7:93.0156 8:92.6979 9:92.8536 
-0.13616680098378819 1:38.376 2:38.064 3:38.1989 4:41.8134 5:41.1954 6:41.3635 7:92.9521 8:92.7615 9:92.8508 
-0.085893458710520773 1:37.8144 2:37.5024 3:37.6465 4:42.851 5:41.3099 6:41.9424 7:93.0156 8:92.6979 9:92.8268 
-0.10622932126398082 1:39.5616 2:38.4384 3:39.0242 4:42.233 5:40.4478 6:41.174 7:93.0156 8:92.7615 9:92.8655 
-0.32241246435879506 1:40.3728 2:40.248 3:40.3572 4:39.2423 5:39.1355 6:39.207 7:93.0792 8:92.6979 9:92.9044 
-0.11937047065757231 1:40.1232 2:39.2496 3:39.7666 4:41.3022 5:39.9824 6:40.572 7:92.9521 8:92.825 9:92.8795 
-1 1:34.1952 2:33.2592 3:33.7288 4:61.6804 5:60.8182 6:61.4149 7:93.2063 8:92.9521 9:93.0765 
-0.069294719730749604 1:35.0064 2:34.5696 3:34.8005 4:59.712 5:58.621 6:59.0935 7:93.2063 8:92.9521 9:93.0623 
-0.18152689727940857 1:35.6304 2:35.0064 3:35.289 4:59.0177 5:58.1174 6:58.6603 7:93.2063 8:92.9521 9:93.0823 
-0.14385214881975014 1:36.3792 2:35.6304 3:36 4:58.0564 5:57.3545 6:57.6647 7:93.2698 8:92.825 9:93.0652 
-0.15469863317966512 1:37.0656 2:36.3168 3:36.7166 4:57.324 5:55.8134 6:56.5345 7:93.2063 8:92.8886 9:93.0652 
-0.19772010895710099 1:37.6896 2:37.0656 3:37.3696 4:56.294 5:54.5927 6:55.7035 7:93.2063 8:92.825 9:93.0732 
-0.19779828065202018 1:38.376 2:37.6896 3:38.0102 4:54.5927 5:53.3796 6:53.8514 7:93.2063 8:92.8886 9:93.0544 
-0.036598660243776997 1:38.7504 2:38.3136 3:38.5584 4:53.4025 5:52.7616 6:53.0863 7:93.2063 8:92.825 9:93.077 
-0.15093264345982904 1:39.1872 2:38.6256 3:38.9072 4:53.7534 5:51.5943 6:52.8106 7:93.2698 8:92.8886 9:93.0229 
-0.18463898444424692 1:39.624 2:39.1872 3:39.3446 4:51.8613 5:51.2968 6:51.5924 7:93.1427 8:92.9521 9:93.0497 
-0.1814965913208994 1:40.3104 2:39.624 3:39.9437 4:51.2586 5:49.3131 6:50.0976 7:93.2698 8:92.9521 9:93.0929 
-0.160797263723894 1:41.1216 2:40.3104 3:40.7077 4:49.7632 5:48.6951 6:49.4093 7:93.2698 8:92.8886 9:93.0488 
-0.18139089814418827 1:41.7456 2:41.0592 3:41.4077 4:48.657 5:47.4668 6:47.8568 7:93.2063 8:92.8886 9:93.0843 
-0.10078455664315288 1:42.3072 2:41.7456 3:42.0128 4:47.7949 5:46.4979 6:47.098 7:93.2698 8:92.9521 9:93.0623 
-0.078576486833632456 1:42.744 2:42.2448 3:42.4934 4:47.0396 5:46.0477 6:46.6311 7:93.2698 8:92.9521 9:93.0843 
-0.1463282760096373 1:43.1808 2:42.744 3:42.9576 4:46.0859 5:45.6815 6:45.9248 7:93.2063 8:93.0156 9:93.1443 
-0.013987014596603165 1:43.68 2:43.1184 3:43.3827 4:45.7426 5:45.2314 6:45.4925 7:93.2698 8:92.825 9:93.1184 
-0.1243153035665442 1:43.9296 2:43.6176 3:43.7696 4:45.2314 5:44.6973 6:44.8754 7:93.3333 8:92.8886 9:93.089 
-0.14043728345149714 1:44.1168 2:43.8672 3:44.0316 4:44.7355 5:43.3317 6:44.0098 7:93.2698 8:92.9521 9:93.0983 
-0.058404086633748298 1:44.5536 2:44.0544 3:44.3199 4:43.4156 5:42.6755 6:43.1054 7:93.3333 8:92.8886 9:93.1018 
-0.12921877939506252 1:44.8032 2:44.4912 3:44.6505 4:42.8358 5:42.5992 6:42.7296 7:93.2698 8:92.9521 9:93.0472 
-0.09777734712087896 1:45.3648 2:45.0528 3:45.1898 4:42.378 5:41.3709 6:42.0178 7:93.1427 8:93.0156 9:93.1014 
-0.066521321057053759 1:45.6144 2:45.3024 3:45.4378 4:41.3862 5:41.0734 6:41.2015 7:93.2063 8:93.0156 9:93.1341 
-0.14043253073916306 1:46.2384 2:46.0512 3:46.1525 4:41.1573 5:40.6003 6:40.8463 7:93.2698 8:92.8886 9:93.0922 
-0.048754620929746612 1:46.4256 2:46.176 3:46.316 4:40.669 5:40.2036 6:40.4389 7:93.2698 8:92.8886 9:93.0854 
-0.11189107690634775 1:46.9248 2:46.8 3:46.8747 4:39.578 5:39.3568 6:39.4454 7:93.3333 8:92.8886 9:93.0841 
-0.047789706798998181 1:47.1744 2:47.0496 3:47.1409 4:39.5017 5:38.7998 6:39.1515 7:93.2063 8:92.825 9:92.9955 
-0.21521370684075344 1:47.6736 2:47.5488 3:47.616 4:37.7698 5:37.3197 6:37.6278 7:93.1427 8:92.8886 9:93.0406 
-0.039201238079384554 1:47.5488 2:47.3616 3:47.4484 4:37.6325 5:37.0908 6:37.3052 7:93.1427 8:92.825 9:93.0487 
-0.039461043492469795 1:47.0496 2:46.0512 3:46.5435 4:37.251 5:36.9993 6:37.1671 7:93.2063 8:92.8886 9:93.0428 
-0.26158902187939947 1:46.0512 2:45.0528 3:45.5824 4:38.4107 5:37.2281 6:37.687 7:93.2063 8:92.825 9:93.0301 
-1 1:30.5136 2:30.4512 3:30.4579 4:65.4493 5:65.3272 6:65.3686 7:93.2063 8:92.9521 9:93.1291 
-1 1:30.5136 2:30.5136 3:30.5136 4:65.3272 5:65.2967 6:65.3228 7:93.2698 8:93.0792 9:93.1518 
-1 1:30.576 2:30.5136 3:30.5201 4:65.3272 5:65.2433 6:65.2975 7:93.2698 8:93.0792 9:93.1624 
-1 1:30.576 2:30.5136 3:30.5506 4:65.2967 5:64.9991 6:65.2051 7:93.2698 8:92.9521 9:93.1338 
-0.49962072495468918 1:30.576 2:30.5136 3:30.5679 4:65.2433 5:64.9076 6:65.1491 7:93.2063 8:93.0792 9:93.1179 
